0.04205838,-0.06453823,0.02676910,0.06519279,0.01263931,0.10301441,0.09081201,0.04802893,-0.03003195,-0.00099313,-0.11959964,0.05530198,-0.11467902,-0.04466271,-0.07460159,0.12096618,0.02441727,0.07869770,-0.11261275,0.00041524,0.04528470,-0.10871558,-0.09463507,-0.07009333,0.10256442,0.05468337,0.05162647,-0.02969070,-0.07592186,0.00196888,-0.11252098,-0.04389146,-0.11189507,-0.12291479,0.06836614,0.00086170,-0.04291025,0.08206470,0.00774655,-0.00262450,-0.11438808,0.10616919,-0.01258323,-0.00207667,-0.04790689,0.01006192,0.09875207,0.02098051,-0.05152537,0.00273405,-0.00640160,0.11325796,0.11884685,-0.09144640,0.09622043,-0.05383770,0.12394597,0.10827710,0.05560151,-0.08203623,-0.02441135,-0.11233789,-0.02726239,0.09451751
-0.10027079,-0.15598749,0.07049975,0.12183982,-0.00640190,-0.08808210,-0.18357968,0.01024671,-0.07552718,-0.19958329,-0.10366943,0.19944558,0.04865172,-0.07138564,-0.14048837,0.23687783,-0.12975879,-0.09242538,-0.16001514,-0.02220792,0.13095133,0.11026138,0.17289622,-0.02449876,0.18895851,-0.14752176,0.06659637,-0.22110319,-0.01415195,0.21744303,-0.10582045,0.04177561,-0.19793001,0.01398969,-0.03835614,0.08747996,-0.13704892,-0.17045112,0.15247247,0.10180771,0.06372657,0.24339026,-0.11482921,-0.01476916,0.07166946,0.13098463,0.09590319,-0.11880930,-0.09170450,-0.04664077,-0.00665130,-0.06294486,-0.03953153,-0.11146611,-0.22063416,-0.06203540,-0.03989865,0.01727171,0.06791402,-0.11964846,-0.17748696,0.05037674,0.11970495,-0.09122500
0.07870534,-0.00196923,0.05282394,-0.06800848,-0.09051935,-0.03166576,0.14126596,0.00681140,-0.01949687,0.16124682,0.08656044,-0.09322269,-0.11284141,0.03607677,0.06520891,0.06503927,0.18377116,0.04987897,-0.00957993,0.05931739,0.08925556,-0.07241534,0.02306428,-0.02494818,-0.01023860,0.00919486,-0.07924075,-0.02390578,0.11402862,-0.13916847,-0.06691052,0.01481229,0.16455241,-0.00265187,0.09841713,0.07333070,-0.03256170,0.09079960,-0.07494429,0.06285542,0.09294263,-0.09897727,0.11379191,0.10901053,-0.12248516,-0.02320778,-0.05488081,-0.12055716,-0.01613812,0.05664107,-0.06073478,0.07482263,-0.06508005,0.07671361,0.00934960,0.14383799,0.11482012,0.04851954,0.03012548,0.10978945,0.12244260,-0.12094299,0.11752926,0.06374894
0.04221706,-0.10103914,-0.03822377,0.09189114,-0.05819622,-0.07928471,-0.12234019,-0.04684711,0.08987850,0.11640756,-0.06163864,-0.00529419,-0.01768248,-0.01827072,0.01361455,0.10999432,0.01685113,0.06333211,0.12106743,0.07914597,0.10208909,0.04000877,-0.01468617,-0.02171099,0.06288835,0.07437411,-0.11970380,-0.08795553,0.09798774,-0.10089616,0.02338654,-0.07515138,-0.10233419,0.02634779,-0.06880026,-0.10292023,-0.02348600,-0.10223256,0.01163135,0.03094664,-0.04058489,0.02814971,-0.03808270,0.08901440,0.11206308,0.11537494,0.09741856,0.04944558,0.02910689,-0.01218605,0.02327639,-0.11079951,0.11398290,-0.09906925,0.01485354,-0.09108740,0.10935172,0.01570748,0.04734285,-0.10425413,-0.07057869,-0.02527876,0.11872265,-0.05759631
0.10328579,0.08111987,-0.11640033,-0.00147513,0.05297019,0.11711822,0.10699454,-0.11236215,-0.04486765,0.01265632,0.10212651,-0.06048901,-0.03289430,0.00074360,0.10585445,0.01596653,0.10052516,-0.03840193,0.05348746,0.01707852,0.01300715,-0.11586836,-0.08564776,0.01601066,-0.03363323,0.07799484,0.07708028,-0.04605629,-0.09564237,0.06623544,-0.06029731,-0.08213858,0.09321979,0.01959704,-0.03253569,-0.10579987,-0.10268579,-0.09931748,-0.06161432,0.07010816,-0.07878040,0.02087317,0.03491174,0.11045060,0.03582607,-0.04112405,0.00082234,0.11174780,-0.07860279,-0.06833611,0.08631200,0.00621560,-0.04579914,0.05407806,-0.08961757,-0.09965420,0.07214031,-0.04457182,0.03380929,0.03298643,0.00571311,-0.05258337,0.04835702,-0.10035692
0.08057705,0.01441368,0.07459837,0.01714842,-0.04667836,-0.04079168,0.02884412,-0.10251905,-0.06820159,0.05306236,-0.00295587,-0.07886313,-0.09498739,-0.04005997,-0.10200377,0.05536905,0.03070433,-0.05321263,-0.10247731,0.08747518,0.03915450,-0.02691323,-0.01252581,-0.11416054,-0.09782226,-0.00915460,0.10580043,-0.09508419,-0.04484844,-0.00360924,0.10404170,0.09546754,0.09483103,-0.09219606,-0.03504939,-0.03713568,0.09846258,0.10613780,-0.05639385,-0.06361622,-0.08380479,0.00831632,-0.05125242,0.04282194,-0.09687570,0.06256150,-0.10888448,0.09862603,0.07396398,-0.01549910,-0.07266343,-0.10504213,-0.09132746,-0.06806479,-0.07909127,-0.04803203,0.00162910,-0.01549609,-0.08847877,-0.05394079,-0.08854781,-0.10666485,-0.06695855,-0.00543340
0.09915070,-0.11404441,0.20272484,0.06397051,-0.04402116,-0.01748005,-0.16448088,-0.08313772,-0.05529121,-0.18078606,-0.02570897,0.18107116,0.12232583,-0.16638871,-0.20813157,0.20628110,-0.12188578,-0.01148820,-0.00835802,-0.11024794,0.18618770,0.00991666,0.07443315,0.03374694,0.21867387,-0.01859932,0.00946653,-0.09563345,0.05443138,0.20117256,-0.10458347,-0.02092205,-0.15693027,-0.04988752,0.07798553,0.15041001,-0.12401640,-0.19028419,0.06232576,0.18958262,0.07001399,0.02105449,-0.10324280,-0.14829110,-0.06810375,0.03136170,-0.02119605,0.10827242,-0.08375756,0.02606122,0.05759333,-0.06160697,-0.09224667,-0.12015082,-0.05641411,0.00571211,-0.08172339,0.04585692,-0.07643615,-0.22209324,0.03596272,0.00127210,-0.04944882,-0.10981058
-0.00024232,-0.17807442,0.09412247,0.03990129,0.09008466,-0.09013610,-0.14955734,0.09531607,-0.12488246,-0.09499555,-0.03160395,0.18080136,0.01530160,-0.19154260,-0.19369182,0.10579916,-0.07556073,-0.11914559,-0.20962562,-0.21235581,0.15303615,-0.07203664,0.21177292,-0.00193997,0.21806329,-0.06313307,0.12199102,-0.24723586,-0.00310206,0.15255034,0.08599295,-0.06765483,-0.17502701,-0.06176783,-0.05016571,0.00140946,-0.19152200,-0.03562248,0.21743420,0.13565114,-0.07513112,0.04706432,-0.06760730,-0.22473416,-0.06233048,0.19314261,-0.00996347,0.07751752,-0.05170787,-0.03383477,0.04478772,0.08934160,-0.08030606,-0.03957754,-0.06648272,-0.09712996,-0.06132889,-0.12096131,-0.11059502,-0.18468961,-0.01804682,-0.02831697,0.08382300,-0.03708670
0.02975278,-0.12810506,0.14326169,-0.01543106,0.09321252,-0.05517364,-0.08037918,0.11004922,-0.20467429,-0.21789908,-0.03753676,0.20187278,0.08219863,-0.09374515,-0.16884983,0.26529935,-0.10898634,-0.09715089,-0.10116087,-0.10031025,0.23610057,0.04830091,0.11625799,0.03464484,0.23007692,-0.19006236,-0.00302075,-0.22624621,0.05139254,0.16260356,-0.06181455,-0.03885783,-0.15365545,-0.04533759,0.00746128,0.13899831,-0.05552690,-0.09438671,0.08852656,0.00372235,-0.08712009,0.00683367,0.08462781,-0.02806579,0.06482290,0.19216849,0.08701445,-0.12324072,-0.15481281,0.12494329,0.01229984,-0.12387162,-0.23489012,-0.10930596,-0.16212387,-0.23649774,-0.05919157,-0.01232383,0.02876195,-0.09198262,-0.14557637,0.12324558,0.09075271,0.04941706
-0.09933577,0.10789831,0.04838087,0.07215589,-0.04385184,-0.00339659,-0.10370804,0.06995399,-0.06265067,-0.04863486,-0.11506434,0.09268972,-0.01872478,-0.04036464,-0.08490162,0.04297198,-0.11150917,-0.10732330,-0.12458169,0.05594884,-0.10559259,0.00503665,0.11315744,-0.06998275,0.07594801,-0.07952878,-0.04915781,0.00222285,-0.09271617,0.11712718,-0.08023202,0.09304480,0.02494572,-0.03379814,0.01367131,-0.06409094,0.02879545,0.04652801,0.00834855,0.11228216,-0.05824049,-0.10804538,0.08259299,0.05468498,0.08461644,-0.08115247,-0.05124569,-0.01778583,-0.11697116,-0.02021326,-0.11734627,-0.11968075,0.08171049,0.00307128,-0.03329895,0.03904749,-0.04914530,0.12450767,-0.07550398,-0.10539763,-0.10776508,0.05119735,-0.07036076,-0.05204079
0.05137637,-0.23278365,0.24923110,-0.08868262,-0.01748599,-0.17727728,-0.01324329,0.05467047,-0.20467924,-0.13832301,-0.08524452,0.14065877,0.20885132,-0.17332464,-0.22464824,0.26069993,-0.19058031,-0.01197384,-0.20378742,-0.05357888,0.04970382,0.03531198,0.09042886,-0.09702839,0.14277302,-0.01374091,0.04922976,-0.05113497,0.00854850,0.16605279,-0.09491032,0.07561572,-0.17625184,-0.12072539,0.07808739,0.18192405,-0.06276330,-0.07217953,0.11015110,0.18340652,0.01053889,0.18288842,0.10901020,-0.00573795,0.11656792,0.05757994,0.01697370,0.12142217,-0.15743302,0.00453871,-0.01242918,0.11518908,-0.17116390,-0.09812500,-0.13719463,-0.14479381,-0.00666456,0.04853533,0.07419848,-0.17892942,-0.08298951,0.09913677,0.04153338,0.02082954
0.08827350,-0.03470477,0.07845534,-0.03337826,-0.02276282,-0.05357552,-0.10311489,0.04824087,0.09121057,-0.10348637,-0.00051427,0.10352120,-0.01904184,-0.01103270,-0.00049491,-0.06726626,-0.00538123,-0.01427238,-0.11238386,-0.07804912,-0.07820378,-0.06953233,-0.09493639,0.00892177,0.06523453,-0.11286852,-0.09336807,-0.00048527,-0.10899884,-0.09920396,0.12265201,-0.03811169,0.05564842,0.09434763,0.06719260,-0.10760364,-0.09581269,-0.05296898,-0.11594939,-0.09629276,-0.00845872,0.06728202,0.11079183,-0.06041096,0.04272597,0.00514318,-0.07002260,-0.00644623,0.02535464,0.09886529,0.03854027,0.05281389,-0.02671902,0.12127352,-0.00645277,-0.07204621,0.01985867,0.09442313,0.04282813,0.10018393,-0.09640336,-0.05443636,-0.09805019,0.09772332
-0.04987226,0.10843170,0.10230534,-0.02444410,0.11537586,-0.01827624,-0.06275648,0.03197637,-0.08450690,0.03145242,0.04095975,0.05305755,-0.03665210,0.06360210,-0.04085740,-0.01865074,-0.12170994,0.10952753,0.06598981,-0.12240678,0.06596422,-0.10654576,-0.09131858,-0.01435713,-0.01499711,0.11484292,0.03876953,0.11708041,-0.07096869,-0.03800584,0.09517026,-0.09484802,0.04953034,-0.10989374,-0.01169340,0.01580857,-0.09871890,0.09879561,0.01686220,-0.06720793,-0.04392608,0.08299337,0.01267579,-0.09775160,0.12423092,-0.00972617,0.10039046,0.04623778,-0.03879608,0.05386898,-0.04790676,0.12026282,0.06461942,0.03760922,0.06019278,-0.09414245,0.00359699,0.11581761,0.08551204,-0.10787606,-0.06028587,-0.04612136,-0.09049395,-0.04074259
-0.04849961,0.11550103,-0.06875154,-0.03714909,-0.06278935,-0.10736064,-0.04009319,-0.07076904,0.07139587,0.07856700,-0.04434963,0.06322173,0.06259075,0.00985285,-0.07994859,-0.03618253,-0.03666181,-0.07736102,0.09606983,-0.10934799,0.06174713,-0.03971650,0.07199184,-0.08548829,-0.05591039,-0.09401171,0.06945076,-0.06703332,-0.10991004,-0.01731136,0.10799327,-0.03140366,0.05355177,-0.02733569,-0.02158377,-0.07334545,-0.09733006,-0.05728938,0.01644071,-0.07405818,0.02881642,-0.10288142,0.01972948,0.02235782,-0.07868300,0.08313943,-0.09641460,0.11131752,-0.02671850,0.00315222,-0.01761939,0.06974186,0.09306087,0.11578276,-0.04700771,-0.09406297,-0.02212259,0.08689895,-0.04300891,0.09740807,0.02019244,0.04587366,0.12158503,0.09030235
0.00596558,-0.09204435,-0.10445800,-0.02993421,0.01199384,-0.00088576,0.01907935,-0.09029193,-0.09078191,-0.08956963,0.04131544,-0.04650335,0.10912737,-0.05628021,0.00197836,0.02915080,0.10093305,0.00938202,-0.09529077,-0.13020752,0.10348595,0.07980625,-0.04368866,0.00289707,0.09113510,0.02059388,0.04102108,-0.03732578,-0.07497407,0.07060558,0.07169975,-0.08003113,-0.00778616,0.06155340,-0.08742008,-0.05490229,-0.12660997,0.04859459,-0.12502758,0.00131988,-0.01997505,-0.08154137,0.02129284,0.03181064,0.04706192,0.02988068,0.03932202,0.11621374,-0.07486297,0.08219746,0.02479672,0.06422882,-0.05682252,0.01075151,0.06841578,-0.05917959,0.02464077,0.03120281,0.11832944,0.00914355,0.00493966,-0.02246024,0.04429992,0.00382067
0.09871924,-0.17774852,0.23623760,0.12121683,0.12116298,-0.09600107,-0.00707813,-0.08336167,-0.05268994,-0.13174173,0.07672811,0.18751962,0.16111362,-0.00336939,-0.04110022,0.08722825,-0.13962841,-0.09038086,-0.05306568,-0.02515150,0.00701029,-0.10343209,0.22812830,-0.11054444,0.05650301,-0.21178819,0.02435299,-0.20005843,-0.02000570,0.06686525,-0.11579353,0.06424339,-0.15285465,0.05169548,-0.08551528,0.03114090,-0.11804295,-0.01306415,0.05485493,0.06434877,-0.06794357,0.09798105,-0.10161422,-0.07072612,0.10321975,0.07831436,0.01946881,0.12161891,-0.01649207,0.11878523,-0.07891124,0.09587677,-0.01588564,-0.11153758,-0.24454808,-0.16547480,-0.06912118,0.03102647,0.12055413,-0.12557992,-0.10662422,0.00632396,-0.01506858,-0.10818516
0.09158470,-0.18626221,0.09235547,-0.09827854,-0.09212740,-0.11369856,-0.07770443,-0.10246730,-0.15190074,-0.20870662,0.00020881,0.11198983,0.11448294,-0.13559929,-0.18801650,0.25875074,-0.14763622,0.10260105,-0.13779512,-0.03584561,0.08825801,-0.01696253,0.00978757,-0.03998537,0.13697873,-0.12242050,0.23209810,-0.19416434,-0.06455755,0.10700800,0.08361779,0.11390547,-0.14539884,0.00894319,-0.09980899,0.12686172,-0.03793953,-0.04685983,0.01477127,0.09506632,0.12474817,0.23149362,-0.12084924,-0.06211074,0.02974857,0.06394755,-0.10099921,0.10580915,-0.00899561,-0.02882607,0.00698270,-0.11460267,-0.17296566,-0.08525513,-0.09116112,-0.17899203,0.07213315,-0.05256647,0.06117463,-0.20079416,0.05378673,-0.09027046,-0.04356359,0.02259061
0.00022432,-0.16460837,0.06390756,0.02823356,-0.07124263,-0.14563312,-0.25263950,0.08268239,-0.01151527,-0.18073359,0.04395325,0.07074192,0.00695816,-0.09843763,-0.15472695,0.13055442,-0.22816224,-0.03167295,-0.25696325,-0.21388197,0.09565260,0.11208603,0.16774245,-0.02344804,0.18369401,-0.00417548,0.06616353,-0.17732628,-0.01063040,0.18543315,0.10110082,0.03994130,-0.22777212,-0.00921344,-0.05895457,0.25528711,-0.02685769,-0.22604233,0.19379838,0.06856246,-0.10666728,0.01199207,0.08098157,-0.03385546,-0.11663204,0.02195652,0.07994324,0.02693294,-0.21256955,-0.03521799,-0.03706872,-0.10500824,-0.13723379,-0.04047954,-0.19839489,-0.03333366,0.06631543,0.06983404,0.06746148,-0.15667723,-0.15694253,0.08715342,0.07659851,0.02820136
-0.00317153,0.06964411,0.09215766,0.07704395,0.01094741,0.06009336,0.00980389,-0.08265574,0.10650578,0.02192183,0.04287641,-0.01565121,0.09668139,-0.10194454,0.02361932,-0.06215990,-0.09804110,0.04163955,0.05000074,-0.04032618,0.09557340,0.04889138,0.10762949,0.01160444,0.02713448,-0.09897329,0.02905993,-0.10992283,-0.05325302,-0.05024856,0.07123601,-0.06369248,0.00192682,0.05835679,-0.09383546,-0.12092420,0.11077692,-0.07828879,-0.08807890,0.09763117,0.09375389,-0.08340542,0.07695036,0.11390163,0.00550237,0.03566435,-0.06150113,0.11780651,-0.03150633,-0.07053041,0.04193379,-0.05976114,0.06069168,-0.07374297,0.00309469,-0.05645235,0.03649458,-0.04663187,0.07833365,0.06884407,-0.02417299,-0.04163204,0.04519340,-0.03631876
0.06171916,0.01465510,-0.10627992,-0.04732896,0.08783738,0.04404396,0.11202666,0.05125828,0.08584512,0.13987719,0.02969970,-0.01224976,-0.16770743,0.11913355,0.13267678,-0.24923877,0.13777258,0.12015444,0.10189285,0.12313368,-0.03953229,0.08580209,0.05598791,0.03562079,-0.19429228,0.00432655,-0.16465603,0.21926774,0.04555513,-0.22305183,-0.10072532,-0.11514303,0.14381781,-0.02335753,-0.08183010,-0.09394150,0.13655670,0.00715046,-0.12532818,-0.07020573,0.07108046,-0.04061553,-0.11657169,0.23588133,-0.05941433,-0.21627952,0.01134594,-0.06889616,0.07914913,-0.02780467,-0.09707467,-0.04971747,0.16067624,0.12189348,0.09020685,0.08320644,-0.09229571,0.01712711,-0.10626602,0.09555037,0.20136096,-0.07756115,-0.02687581,-0.01823367
-0.09641667,-0.09809452,0.17202915,-0.10566169,-0.01169470,0.00263965,-0.10302677,0.08476587,-0.22627975,-0.11767393,-0.11274272,0.20794471,0.03814216,-0.01826948,-0.10943226,0.11087829,0.00050233,0.01561804,-0.24126321,-0.09553201,0.13210662,-0.04150927,0.17083813,0.05356933,0.22174342,-0.10919934,-0.00375440,-0.11687326,-0.06311120,0.03279613,-0.06748101,-0.03340240,-0.03966247,0.08598275,-0.01284252,0.09019130,-0.19164766,-0.20438516,0.11031930,0.17981422,-0.01870118,0.05042685,0.03763506,-0.12260797,0.05922738,0.09851158,0.11282207,-0.03755100,-0.07287690,-0.08776441,0.06409144,0.11111014,-0.22712199,-0.06897607,-0.10806238,-0.07295574,0.03633840,-0.04616117,0.05303487,-0.00692720,-0.00828340,0.05594584,0.11817859,0.05156499
-0.07935910,0.08285873,0.00259449,0.06895226,0.02002811,0.06501755,-0.07761669,0.07059489,0.03019629,0.07863422,0.01773012,-0.09858336,-0.06939967,-0.00372221,0.02509104,-0.05948921,0.06207977,0.12488517,0.12108447,-0.09160800,0.00915641,0.03651462,0.00512172,0.06543338,-0.12417082,-0.06315179,-0.00161612,0.04694445,-0.08675297,-0.03972478,0.01332618,-0.04091124,0.02692716,-0.02156676,0.11652076,0.09568100,-0.00602484,0.07376252,0.11944240,-0.01311298,0.08128084,-0.04690842,0.01879296,0.05578656,-0.08473969,0.02449407,-0.08906786,-0.07915251,-0.12299541,-0.00929855,0.09875341,-0.09083024,-0.12412313,0.10602556,-0.03424312,0.09218584,0.09003285,-0.11832310,0.06463659,0.06126179,-0.01743963,0.11915213,0.01261868,0.07177733
0.05361786,-0.10895115,0.00322828,-0.00359088,0.06685977,-0.00675493,0.01421285,-0.01553150,0.02544668,0.03921048,-0.09740648,-0.04707018,-0.11370826,0.02195717,-0.09424345,0.07893471,-0.05500937,0.08862939,-0.00479244,-0.05215122,-0.00736819,-0.11454614,0.02581654,0.08543745,-0.10314965,-0.01296490,-0.08505864,-0.11838503,0.07041538,-0.04770792,-0.00910741,-0.00651614,-0.03447661,-0.01844950,-0.06117657,-0.02506284,-0.03129786,0.04090825,0.11869417,0.09828821,-0.00413686,0.05409260,-0.07180741,-0.00993605,-0.08180426,0.07357511,-0.09660521,-0.08802821,0.00018372,-0.04239385,0.02328710,-0.09197439,0.11675200,0.10341625,-0.02076438,-0.04667248,-0.01723017,0.06856854,0.11531293,-0.03926660,-0.09117180,0.00240953,0.11735190,-0.05289672
-0.04628496,0.13885377,-0.09842905,0.02655497,0.00469966,0.12246194,0.23335335,-0.02860722,0.13680433,0.18497449,0.08447914,-0.12187742,-0.05892370,0.19403072,0.15383297,-0.03008785,0.15321425,-0.11224866,0.11506179,0.11869121,0.01526767,0.10551979,0.01525076,-0.11222610,-0.19721949,0.11548191,-0.14784959,0.23748882,-0.07530348,-0.21588708,-0.07094678,-0.07170013,0.17013794,0.07673781,0.04172984,-0.09495283,0.16139981,0.15173234,-0.24198928,-0.02848751,-0.10643102,-0.09202246,-0.11823694,0.17546387,0.00764664,-0.05520613,0.09445699,-0.08542438,0.09127685,-0.09494941,0.07355092,0.06301530,0.19515871,0.16124099,0.22177836,0.13984433,-0.10895497,0.01904964,0.11449523,0.23533042,0.11559313,-0.02441429,0.01815005,0.03960900
-0.06705564,-0.09666680,0.01788321,0.00472766,0.08513968,-0.11278191,-0.01688869,-0.09614120,-0.06517938,0.10762198,-0.04851852,-0.09075613,-0.08873270,0.01948224,0.08099200,0.00037120,-0.11864118,0.05784349,0.02072255,-0.08377685,-0.00143363,-0.06831010,-0.12108636,0.08906353,0.11549118,-0.10148461,-0.01858261,0.12145479,0.01785405,0.04886946,0.03173596,-0.10662764,0.03707843,0.06979015,-0.06635965,-0.10523947,-0.05171153,0.11243783,0.01815476,0.12488495,0.11364686,-0.04420276,-0.06983501,-0.02650093,0.06559138,-0.09993856,-0.04801616,0.09781200,-0.00110891,0.11604054,0.06888708,0.07047532,-0.04080091,0.09317498,0.09133169,0.04089959,0.10333112,0.02552401,0.07179523,0.11809351,0.06219471,0.07389158,0.00940569,-0.06309986
0.02076207,0.07031800,-0.05996469,0.04313077,-0.07729387,0.01834660,0.14510500,-0.10206364,0.06082814,0.17189315,-0.00619580,-0.08196733,-0.11276561,0.21840203,0.23355360,-0.02171357,0.16043748,-0.10513374,0.05001078,0.07369658,-0.21621339,0.11993071,-0.14089164,-0.00883907,-0.10462353,0.21391317,-0.09289581,0.09576023,-0.00478975,-0.02439584,0.07064949,-0.00449461,0.01640491,0.08233863,0.03038150,-0.06932872,0.08856695,0.03939252,-0.09744728,-0.07778773,-0.09825973,-0.14628454,-0.08524625,0.01469548,0.03224796,-0.05539319,-0.01711786,-0.10739045,0.25441548,0.05382539,0.07685043,0.05921265,0.18511009,0.06757113,0.07777791,0.18731847,0.02351753,-0.04634830,0.10892579,0.06571845,0.14102581,0.09716450,-0.11557630,0.12269087
0.07804616,-0.20329361,0.19947751,0.07025361,-0.08766419,-0.02399954,-0.10023072,-0.11040248,-0.04002772,-0.16715245,0.07936808,0.12717150,0.16384159,-0.20296055,-0.18140095,0.22560056,-0.09855893,0.09568232,-0.10381415,-0.01488302,0.00185315,0.03325987,0.20469397,-0.03158015,0.08665499,-0.03612965,0.15162396,-0.06606207,0.05175734,0.24129932,-0.05549978,0.11630180,-0.05736075,0.06348496,-0.07869369,0.13773280,-0.09129226,-0.10771112,0.04091034,0.08261352,0.11566712,0.24673584,0.00713724,0.00165639,-0.09193166,0.06572357,-0.06219755,-0.12490283,-0.24029119,0.12223670,-0.11383840,0.01146957,-0.01274478,-0.15732604,-0.08266244,-0.12804262,-0.11351450,0.04798765,-0.09100798,-0.08486376,-0.21953404,0.09956498,-0.01486146,0.03545770
0.08296679,-0.10918534,-0.02015470,0.08253027,-0.04630916,-0.12051344,-0.05089073,0.00957565,-0.00471741,0.10488066,-0.04685161,0.08032583,-0.06952098,0.09287910,-0.02950822,-0.07525833,0.04983300,-0.10416381,-0.04962017,0.06535797,0.02328674,-0.03080921,-0.11929914,0.06313229,-0.06903118,0.03001174,-0.07488677,0.06551085,0.00851431,-0.06440142,-0.07752182,-0.09492306,-0.06273536,0.11798871,-0.08794358,-0.04907702,-0.11831121,-0.05399282,-0.07923119,-0.08151285,-0.07082044,0.06979999,-0.08896342,-0.03007478,0.05979270,0.04912716,-0.10109368,-0.06825823,-0.05284780,-0.02330865,-0.09189187,-0.08830030,-0.08770984,-0.10135941,-0.11736423,0.04143348,-0.04351871,0.09975268,-0.09280451,-0.05679949,0.09234984,-0.11894663,-0.01766270,0.08972135
0.11306329,-0.04536825,0.05041993,0.01998347,-0.07828765,-0.09962040,-0.06645434,-0.00898343,-0.02346338,-0.03977832,0.00120489,-0.03005326,0.05053520,-0.07981211,0.10518131,0.08546440,-0.04436958,0.05106609,-0.08790749,0.04794411,-0.11791271,-0.05179438,-0.07926279,-0.10462883,0.04831837,0.02873050,0.12177870,0.09683712,0.01724650,0.07353431,-0.05217195,-0.08946440,0.08288962,-0.11640251,0.09782986,-0.04284866,0.10896175,0.03778088,-0.02080053,0.01059139,0.00579596,-0.12098657,-0.08253168,0.10639183,-0.07302417,0.03084546,0.10073130,0.03613034,-0.08824599,-0.09290385,-0.01658103,-0.00630234,0.11598366,0.06476547,0.01791905,0.00070982,-0.11664054,0.06114139,-0.02679288,0.04234928,-0.04655075,0.06314510,-0.06629747,0.06604591
0.06389484,-0.09149945,0.11958648,0.09887289,-0.07492968,-0.11527969,-0.07339251,0.11165921,0.11808546,0.09482981,-0.04697579,-0.06847058,0.09346379,-0.08304672,0.03263915,0.07944088,-0.07290243,-0.02188456,-0.07428728,-0.07448867,-0.05352651,0.06791617,-0.10261646,0.08125328,-0.01601979,-0.05351491,-0.03982608,-0.06374013,-0.10437089,-0.04992849,0.02528536,0.11334181,0.08807388,0.11569048,-0.06283398,0.03436553,-0.05028924,0.09940027,0.03479445,0.01208933,0.03084643,0.02723256,0.00695531,-0.10272446,-0.08932805,-0.11805794,-0.09607559,0.01050223,-0.05127546,-0.09818977,-0.04551491,-0.06069353,0.02118520,0.03993618,-0.07254231,-0.00429261,0.11514963,0.02713597,0.08383881,-0.06766027,-0.11635152,-0.08115564,0.04468809,-0.09828980
0.11763386,0.21397233,-0.11072674,0.08537076,-0.09737572,0.08381711,0.22288622,-0.08325376,0.14226708,0.04376782,-0.08950736,-0.04075646,-0.21752910,0.02739772,0.22823057,-0.22709829,0.02344476,0.10785997,0.04321269,0.11324465,0.00498987,0.07234955,-0.04563433,0.00790370,-0.15110865,0.18877119,-0.17690834,0.25039285,0.07951567,0.00464898,0.01853357,0.05153573,0.16238698,0.04786280,0.06041412,-0.16865034,0.11956392,0.07702800,-0.12128176,-0.07204912,0.01131047,-0.16415519,0.09416340,0.10119010,0.04260346,-0.06326342,-0.06641030,-0.01829968,0.09892242,-0.11024268,-0.00637034,-0.06013295,0.02324569,0.11110867,0.14999726,0.19286358,0.00242402,0.12102012,0.11415094,0.17178138,0.18541400,-0.06059137,-0.12056781,-0.01246941
0.10712084,-0.13047720,-0.01398580,0.05422617,0.07863599,0.09141053,-0.12417006,0.01937971,0.10444004,-0.05825537,-0.05750141,0.07975630,-0.11430947,0.02748080,0.09539749,0.11867349,0.00867844,0.08654243,-0.11775540,-0.07893527,-0.13132855,-0.11050077,0.11249356,0.10238327,-0.04584335,0.01446820,0.01797846,-0.00142821,-0.03109708,-0.08531655,0.03513797,0.01474606,0.01099546,0.05050266,0.02777584,-0.07467102,0.02520612,0.03770551,0.07978540,-0.02968950,-0.00969635,-0.04765614,0.10079053,-0.01723423,0.09801261,-0.12120381,-0.11264317,-0.10724983,-0.00070195,-0.04226561,-0.08014590,-0.01664665,0.10875196,0.01109786,0.09091308,0.11310539,-0.11243804,0.03871727,-0.10964485,0.11507108,0.08328269,0.04206339,0.09024598,-0.06608722
-0.06363085,-0.10852084,0.03873311,-0.10572377,-0.08359818,-0.23698570,-0.06371211,0.07456517,-0.11570425,-0.06453547,0.10193491,0.14586298,0.08206835,-0.20026504,-0.25377855,0.04075212,-0.20931645,-0.10885821,-0.07532796,-0.02635047,0.23300992,-0.08241238,0.24960557,0.05182965,0.06696415,-0.17183945,0.10778149,-0.07156314,0.08758239,0.08843141,-0.05408014,-0.08043024,-0.13783644,0.04571350,-0.07396543,0.08986375,-0.05126993,-0.03385549,0.15681669,0.15351652,0.09524857,0.11865776,-0.11322248,-0.00196508,0.01660417,0.20947833,-0.04413278,-0.00602561,-0.11403414,-0.08745885,0.04251198,0.07259321,-0.15680622,-0.02424384,-0.04374535,-0.04389621,-0.11717121,0.04806598,0.06751281,-0.15116145,-0.23500082,0.07723999,0.00528340,0.07275379
0.05835105,0.04043722,0.00379509,-0.03560489,-0.03554013,-0.10717490,0.01996446,-0.00109397,0.00820783,0.01699740,-0.01328832,-0.11416654,0.05557433,0.08960687,0.10764754,-0.02697837,-0.04020783,-0.01458827,-0.10482071,-0.01527579,-0.10084990,0.03236610,-0.04258512,-0.03910603,0.07952608,-0.09924591,-0.01047704,0.05197589,0.10633478,0.02808170,0.04584511,-0.09144749,-0.01794076,0.08685036,0.11719085,-0.01098555,-0.12427269,0.06517434,-0.05869031,0.00035192,0.04909711,0.04819889,0.04554933,-0.05516212,-0.09657046,0.11028229,0.03097098,0.07803465,-0.04032092,0.08870326,-0.01012193,-0.06668602,0.06895365,0.04056039,0.02105363,0.08105351,0.08758035,0.06048378,0.12281883,-0.05465433,0.01550364,-0.07755102,0.06865329,0.06394428
0.04362865,0.16982844,-0.24325520,-0.11452650,0.04072197,0.14337972,0.13645992,0.11508229,0.12575185,0.20810387,-0.12013528,0.00975852,-0.02211672,0.16336854,0.12743345,-0.12360550,0.04088692,0.01392567,0.04880730,0.11916373,-0.09716676,-0.12193695,-0.07476790,-0.05096206,-0.24911879,0.20231807,-0.15845215,0.14860338,0.02830830,-0.17156257,-0.04003461,0.01161091,0.02690968,-0.09813143,0.05505425,0.00444204,0.20122023,0.17770949,-0.21345221,-0.10728641,0.05905652,-0.22097132,-0.10253452,0.06545182,-0.02686520,-0.02471294,0.01382889,0.03250749,0.21976642,-0.09732535,0.07462129,-0.06966141,0.20311461,0.05026855,0.13087653,0.01529754,-0.01129694,0.12191729,-0.08437151,0.17531371,0.10720726,-0.01116256,-0.10744257,0.03661099
-0.02211289,0.19340800,-0.14053078,-0.05733803,0.06926282,0.02140350,0.15795846,-0.09835342,0.03793064,0.21407086,0.10830525,-0.20767981,-0.13293110,0.00462184,0.02740355,-0.09646236,0.20134975,-0.07567033,0.01349996,0.20243201,-0.18954431,-0.05365445,-0.03545436,0.03383665,-0.12475443,0.01294781,-0.13383423,0.11282290,0.09483330,-0.10524653,0.07015072,0.05049647,0.20306976,0.10308253,0.06431717,-0.06953537,0.24299099,0.23389846,-0.04393136,-0.00104466,0.11523075,-0.20037459,0.09765321,0.09999636,0.09222141,-0.02567871,-0.06690879,0.12359810,0.24940233,0.09922116,-0.01796295,0.04961431,0.15407172,0.16819264,0.19614778,0.16352935,0.02941421,0.07905003,0.11448990,0.18930587,0.14511408,-0.01696053,-0.02389894,-0.00371049
-0.11948332,-0.04991732,-0.01468224,-0.11995190,-0.00356957,-0.03930955,-0.08526663,-0.10251345,-0.10559418,-0.10342866,0.05825987,0.04734321,-0.06278265,-0.08820435,-0.04285260,0.10399836,-0.03921562,0.02718906,-0.02672566,-0.05651663,0.06109086,0.03667580,-0.09010140,-0.10954224,0.07623725,-0.11612838,-0.11522490,-0.04829649,-0.08358024,0.08810617,0.06294821,-0.09332612,0.03391594,-0.12397595,0.05027355,0.00476150,-0.08618908,-0.04518263,0.11476026,0.10044056,0.11632749,0.10706172,0.05248733,-0.09362193,0.10407317,0.07424039,0.05227703,-0.06514896,-0.03339489,-0.11866382,-0.06942552,-0.02203268,0.10165599,-0.06745860,-0.12453111,-0.02292010,0.10199250,0.02014236,0.08328132,0.11200433,-0.00782494,0.10957018,0.09233861,0.01509807
0.04717612,0.01402924,0.03344552,0.07696101,0.08571821,-0.12393912,0.03059669,-0.01967646,0.00773557,0.02969053,-0.09816568,-0.05495861,-0.12690684,0.05888961,0.02671227,0.10048205,-0.04251338,0.09573196,-0.10058139,-0.06725033,0.06889887,0.04082836,0.11571888,-0.00545675,-0.10593859,0.07682393,0.08153135,-0.04153328,-0.03600785,0.11366835,-0.12448245,-0.01711841,-0.10768264,0.10997193,0.01324949,0.02208418,-0.01424406,0.05386036,-0.04467847,-0.08601137,-0.05753887,-0.06412420,-0.06981663,0.06098906,0.05671333,0.11394740,-0.12136835,0.04845574,0.00939381,0.04316935,-0.04207717,-0.05101338,-0.00882658,0.09362198,0.06717280,-0.04671526,0.11356361,0.01669215,0.09251556,-0.06552090,-0.11925904,0.02896252,-0.09126809,-0.10684551
0.11783779,0.06767094,-0.09607553,-0.09576157,0.04114226,-0.02384613,0.05108050,0.10959093,0.07436432,0.06841388,0.06704096,-0.00604780,0.00378437,0.12473325,-0.10434191,0.03320685,-0.09240419,-0.09611760,-0.03334850,-0.09405647,-0.00256982,-0.06848340,0.00173159,0.00028683,-0.07789633,-0.03240573,0.11809126,0.04547906,0.08658138,-0.11179321,0.04596280,-0.02356681,-0.03854594,0.03889434,0.10641943,-0.10753915,-0.10902521,-0.01012528,0.11262217,-0.03854701,0.02579038,-0.11522911,0.03306024,-0.09670323,-0.08973661,-0.08330622,0.02379349,-0.00993979,0.00701737,-0.12121369,0.01499547,0.01734540,-0.12042212,0.05136545,-0.00335006,0.05132626,-0.11897419,-0.08091396,0.11615378,-0.11093269,-0.01260090,-0.07972366,-0.02595232,0.11232126
0.05443710,-0.03040092,-0.03547545,-0.07123950,-0.07568654,-0.12204891,0.00241633,-0.04885021,0.06630389,0.08016370,-0.12428041,-0.00717063,-0.05745845,-0.03304917,0.03989632,-0.07401684,-0.09180102,-0.08761330,0.02445485,-0.03305162,-0.04721327,0.05065061,-0.07811567,0.02684513,-0.02211030,-0.00744987,0.08246210,0.02919088,0.02393073,0.06223166,-0.01844348,0.06247497,-0.12368757,-0.08384483,-0.10749714,0.00554597,-0.00031166,0.07800616,-0.02182108,0.02156369,-0.00798300,-0.11165905,-0.02133970,-0.09587018,-0.03931922,-0.04667976,0.01166183,0.05449809,0.11738586,0.00532076,0.09671569,-0.04305324,0.04299392,0.03154588,-0.05760233,0.08084738,-0.08154182,-0.04870331,0.09970079,-0.08529070,-0.03374782,0.03394687,0.04748781,-0.07201041
-0.01931901,-0.04894738,0.20326622,-0.01932272,0.01578638,-0.10198374,-0.11678485,0.04309857,-0.19172303,-0.04535843,-0.05047090,0.23134862,0.05482982,-0.10378260,-0.07898588,0.09820943,-0.10637069,0.11106077,-0.21185692,-0.03840519,0.24003063,-0.05270614,0.07541414,-0.05419223,0.19010630,-0.12978971,0.13885319,-0.24750780,-0.11643174,0.12470254,-0.07597207,-0.07163249,-0.04498543,0.00555295,0.06449562,0.24059808,-0.17349446,-0.15956813,0.21532968,0.13691631,-0.05426809,0.21786849,-0.09223495,-0.15634583,-0.02076700,0.23351544,0.08869945,0.07189806,-0.13803186,0.06558459,-0.07225765,0.02167076,-0.13017935,-0.02674466,-0.00795428,-0.16440655,0.01207235,0.01208672,0.03474410,-0.07843783,-0.04769079,-0.06776695,-0.08716729,0.11257449
0.06296633,0.07991742,0.08558655,0.08396165,0.12256375,-0.03238904,0.00641596,0.11987861,0.09126921,0.02980602,-0.02871077,0.00396870,-0.02275380,0.08977368,0.04247540,-0.03017260,0.04664285,-0.11680463,0.11045188,0.04031938,0.08943050,-0.11823678,-0.04916136,-0.03189752,-0.12390092,0.07912973,0.11978051,0.12484656,0.08853653,-0.09536177,-0.11574955,0.01794891,0.09036984,-0.00326259,-0.11666425,0.07387160,0.05035850,0.11423364,-0.12464383,0.00940166,-0.09771867,0.03307138,0.11375442,0.12174578,-0.09793954,-0.02727555,-0.05173433,-0.10014626,0.02060071,-0.09003112,0.06608896,0.11249880,0.07017526,0.06227010,-0.08180623,-0.06670634,0.00449577,0.01720768,0.07233608,-0.11447354,-0.11558448,-0.03356503,-0.07645874,-0.07804568
0.00866571,-0.19760121,0.04686660,-0.08224311,0.06196694,-0.14589038,-0.06092906,0.00783391,-0.09583818,-0.04705357,-0.12464330,0.21105017,0.18275081,-0.08311742,-0.10170081,0.16887671,-0.14375845,-0.08701983,-0.14005890,-0.02394199,0.08698333,-0.11082384,0.23920648,-0.07126553,0.21053967,-0.20884755,0.10032186,-0.10006212,0.07983696,0.17523958,-0.04988194,-0.10814765,-0.09408196,-0.08577336,-0.01344083,0.05870855,-0.17263205,-0.20124105,0.26553044,0.24944611,-0.02111001,0.22677112,0.02758840,-0.13343911,0.07626045,0.17399447,-0.00990765,0.08222853,-0.07268534,0.10008943,0.09616296,-0.11552791,-0.06929249,-0.04444263,-0.10433231,-0.12181238,0.10486661,-0.06981967,0.08629948,-0.09402072,-0.26199612,-0.02872278,-0.11309740,-0.04004067
0.10806739,0.21360239,-0.07546750,0.04430442,0.12454268,0.18122725,0.20320182,-0.08546963,0.17613272,0.16607817,-0.08380345,-0.19480766,0.00852207,0.09701140,0.10182388,-0.12014914,0.25473228,-0.10089971,0.15963063,0.10991199,-0.01123893,0.10659948,-0.05110760,0.01216659,-0.19618593,0.08929271,-0.15694956,0.01717073,0.10581024,-0.17876387,-0.08521762,0.12104681,0.20297673,-0.11552515,-0.00083567,-0.06460896,0.15663296,0.03384187,-0.22926870,-0.02381536,0.11894543,-0.12021123,0.00211172,0.21234013,0.01873551,-0.22447576,0.02148038,-0.10138561,0.12348891,0.02456029,0.06150854,-0.08522467,0.05946768,0.18225907,0.25423479,0.12359472,0.03663336,0.03886759,-0.03689156,0.18753490,0.20873103,-0.05152825,-0.02473456,0.09252305
0.02267504,-0.24091405,0.23557045,0.05497304,0.03644429,-0.07909390,-0.13466547,-0.04864529,-0.08067529,-0.12809692,0.07592987,0.15838343,0.11236290,-0.04062203,-0.26413870,0.03201754,-0.01684501,0.07355665,-0.06433888,-0.00769127,0.09986916,-0.01804131,0.21215853,-0.01606452,0.03437677,-0.16223362,0.24077713,-0.16838750,0.07926238,0.17428909,0.10399765,-0.01977883,-0.24063230,0.08735320,0.07724722,0.03306511,-0.08798894,-0.04700248,0.13526808,0.06445597,-0.10183209,0.11726622,0.00960962,-0.21355733,-0.08885969,0.19464175,-0.11188869,0.02874738,-0.04360458,-0.07234052,-0.07370989,0.06831045,-0.13152386,-0.03186860,-0.23286510,-0.15115507,-0.03910933,-0.09281048,0.10450962,-0.16258293,-0.02151749,-0.00987405,0.02694742,0.02830070
0.06805837,-0.16245863,0.20670106,0.00633015,0.06762449,-0.18850668,-0.05770528,-0.02764183,-0.21058883,-0.16092569,0.08371353,0.14667434,0.00304699,-0.04441472,-0.12537578,0.16948274,-0.04111930,0.06164327,-0.18496813,-0.00238491,0.17428708,0.10610527,0.16661482,0.04794411,0.20023733,-0.04894248,0.17203648,-0.15139340,0.12292832,0.08294997,-0.12408903,-0.06095909,-0.00575139,-0.06741088,-0.04255712,0.06442394,-0.16121206,-0.06513198,0.15950848,0.20752278,0.07195510,0.10170739,-0.01695065,-0.06674650,-0.00122690,0.12845509,0.04967457,-0.04589441,-0.05515625,0.02741642,0.00186770,0.07899718,-0.20125425,-0.17478448,-0.24129991,-0.05486071,0.04731202,0.00859329,-0.01097138,-0.20890725,-0.18418393,0.01431909,0.09620145,0.10816054
-0.06066923,0.11279833,-0.03602909,0.09811275,0.00692156,0.12374239,-0.05451857,0.10895155,-0.01971118,-0.12296593,-0.10206881,-0.06930670,-0.10823061,0.01485731,-0.05760652,-0.05538127,0.07955155,0.02074192,0.08253926,0.09948473,-0.02437435,-0.02546242,-0.01141185,0.08284537,-0.00656116,-0.02665421,-0.06455992,-0.00759587,-0.09528661,-0.08493410,0.03624140,0.06307413,-0.11612578,-0.04486322,-0.09283234,-0.01398471,-0.07155558,0.00153312,-0.10669982,0.08417410,-0.06489362,-0.00747949,-0.03363667,0.01017499,-0.10633412,-0.00807795,-0.01382485,0.05845656,-0.06536724,0.11403903,0.06520550,0.00225195,0.08863284,-0.03346607,0.10253444,0.06088334,-0.03097692,-0.03703140,0.08250612,-0.05845785,-0.05443379,-0.12145296,0.07771231,0.11909325
0.03186040,0.12880307,-0.11071297,0.04316545,-0.07023649,0.14131798,0.11782435,-0.02217829,0.06124820,0.00996234,-0.05088960,-0.17256108,-0.21866025,0.05347692,0.22517544,-0.13108069,0.21535149,0.07767858,0.11018021,0.09547242,-0.05183441,-0.03506023,-0.03338409,0.05468042,-0.17218386,0.18051089,-0.21985658,0.14015628,-0.02282743,-0.01068046,0.05514663,-0.12195159,0.02289950,0.11550613,0.11547823,-0.03625607,0.22981183,0.20449835,-0.16812930,-0.01372248,0.04137635,-0.20711967,-0.10781398,0.20092696,-0.05143037,-0.23696476,-0.04056880,-0.05310161,0.03864658,-0.00550418,-0.07304870,-0.07429095,0.22214873,0.22283374,0.25184336,0.09596350,-0.05523142,0.10060385,-0.03340079,0.25010058,0.15114073,-0.02660565,0.11845808,-0.03846061
0.07760769,0.18606690,-0.22564153,0.04266965,0.01280485,0.14329970,0.23168045,0.08333653,0.04494032,0.19224839,0.03149936,-0.05009122,-0.11326727,0.23903549,0.24608512,-0.08752110,0.03550036,0.08396703,0.11197500,0.04460251,-0.20007156,0.04876873,0.09134709,-0.10336918,-0.24797495,0.05825491,-0.22908893,0.02185412,-0.08702450,-0.06188073,-0.04269132,-0.10159947,0.05986496,0.02952604,-0.08589751,-0.12719576,0.03823942,0.03670346,-0.20994601,-0.15256979,-0.04548275,-0.08398166,-0.09860089,0.17295717,0.06022918,-0.13530880,-0.00404155,-0.04101494,0.12724176,-0.06588022,0.10010767,0.01570159,0.15700999,0.14252236,0.23438901,0.06094900,-0.04516843,-0.03784966,0.02341481,0.24356847,0.16846882,0.03822339,0.00920700,0.00857796
0.00594319,-0.09821315,0.10612884,0.10083114,-0.02655011,-0.07922029,-0.11746822,-0.02555396,0.12042700,0.00932887,-0.08236939,-0.01516993,-0.03596982,-0.05223651,-0.08605723,0.10882047,0.09945434,-0.09176254,-0.09421490,0.05932459,-0.09738086,-0.05893253,-0.03053963,0.10852091,-0.09661438,0.07567713,0.01569539,0.05319893,0.12026224,0.06660408,0.07370870,-0.03424878,-0.09887718,0.01700869,-0.08411843,-0.02945429,0.04106252,0.08720830,-0.07812884,0.09357998,-0.07962377,0.10944653,0.09448430,-0.02869537,-0.00491799,-0.01030597,0.06267406,-0.09255435,-0.10486302,-0.08069848,0.10644889,0.07944302,0.06067708,-0.05027565,-0.02171133,0.06303546,-0.02686483,-0.00556822,-0.04861221,-0.08358072,-0.12262300,0.05828790,0.05742300,0.09886852
0.05328806,-0.17489529,0.21386461,-0.09764355,-0.02146071,-0.21934786,-0.22709346,-0.11451398,-0.16887195,-0.24659404,0.10421424,0.15702394,0.18176162,-0.15496095,-0.13044880,0.17176254,-0.14541258,0.00239266,-0.02383472,-0.10669018,0.02724694,0.11507660,0.25924331,-0.04006812,0.17940588,-0.01618259,0.06552385,-0.15494254,-0.11637089,0.14020710,-0.02379842,0.10162632,-0.11873160,-0.10335694,-0.07675382,0.05376754,-0.21668501,-0.12380283,0.23360625,0.13371237,-0.00507133,0.14332549,-0.09879003,-0.01690095,-0.03460211,0.14971459,0.11867899,0.01356296,-0.24223110,0.05542332,-0.09900437,0.01420827,-0.11399973,-0.25781778,-0.18733481,-0.06231780,-0.05079724,0.10953006,0.04428943,-0.16614036,-0.01462557,-0.06765303,0.01500496,-0.00388314
-0.05828197,-0.05315550,0.07249484,-0.01035702,-0.01041748,-0.23694198,-0.17810607,-0.11129291,-0.02564607,-0.09521862,-0.09641743,0.07597867,0.24631760,-0.20631799,-0.08634587,0.25596589,-0.10557724,-0.00212924,-0.20891374,-0.11478793,0.22152400,0.07800342,0.07430341,0.09346934,0.20895100,-0.17353351,0.19155630,-0.20179997,0.10267182,0.13741697,0.09791462,-0.11028448,-0.11565744,-0.02129724,0.12144873,0.11281450,-0.08504495,-0.05480390,0.09780942,0.18015742,0.08758567,0.07794295,0.07981628,-0.15630822,0.06940919,0.05960821,-0.08044232,0.10599223,-0.01597597,-0.10737653,0.05140619,0.09387006,-0.07140027,-0.06339116,-0.06722706,-0.12881063,0.10619122,0.04805091,-0.08281724,-0.23802453,-0.18143071,-0.08691064,0.10291278,-0.07013996
-0.02550213,0.16733903,-0.10792256,0.04613471,-0.08119950,0.00383130,0.03209413,0.00057474,0.09002766,0.07972579,-0.07581347,-0.09326973,-0.05961180,0.22433592,0.27278811,-0.22957426,0.24463938,-0.02940881,0.02774367,0.04828190,-0.05919432,0.09146865,-0.04084898,0.02254431,-0.24904121,0.16165540,-0.11102895,0.24030827,0.06302676,-0.07159629,-0.00250544,-0.12028769,0.21848381,-0.12033956,-0.04624914,-0.06941143,0.11225332,0.22527254,-0.21627061,-0.19640182,0.08611886,-0.07785472,-0.04865533,0.14441580,0.10790302,-0.16617334,0.06364976,-0.06075591,0.23674896,0.08949101,-0.09783752,-0.10900615,0.12062943,0.24819548,0.04026980,0.22987136,0.05655591,0.07685424,0.10820307,0.08295830,0.23560947,0.00492653,-0.03335845,-0.05432838
-0.02754259,-0.11454184,-0.07265042,0.03787774,0.12081349,0.03481519,-0.11411218,0.02547793,-0.08912326,0.10842621,0.11405526,-0.10666797,0.11818352,-0.03713062,-0.10308234,0.02421187,-0.10475363,0.06605233,-0.02265359,-0.10879347,0.02838811,-0.09351954,-0.10676335,-0.11218187,0.01606704,-0.00103955,-0.09069459,0.08596770,-0.08171082,0.06178866,0.04483064,0.09665571,-0.10623693,-0.10209940,-0.06602682,0.00577763,0.11355476,0.00724541,0.00104487,0.09167752,-0.01665312,-0.02075869,0.09374212,-0.11049597,-0.07946414,-0.04442503,-0.06673293,-0.06186478,-0.07995626,0.10418235,-0.00827836,-0.03415285,-0.07863079,-0.05105396,-0.07639201,-0.10044986,0.06817301,0.02339007,0.08173974,-0.03903832,-0.02694723,0.04703677,-0.01351982,-0.12236255
-0.02302295,0.23979883,-0.05221231,-0.00104386,-0.05199690,0.13686346,0.20381793,0.09130733,0.00004862,0.16714643,-0.00138666,-0.05870280,-0.01226710,0.04870290,0.05148755,-0.11095961,0.21029913,-0.03792669,0.08359147,0.00737395,-0.00805393,0.00204594,-0.16428350,0.05505352,-0.04882349,0.02453604,-0.20177382,0.04135258,-0.05719124,-0.03270564,-0.04957096,0.08200595,0.07333620,-0.11563044,-0.08434361,-0.07186269,0.13372669,0.06230780,-0.04195393,0.01036077,-0.03915741,-0.07856879,-0.11794360,0.21201259,0.04480270,-0.02359824,-0.04504192,0.05353160,0.17960064,0.07494444,-0.10042797,0.03509022,-0.00494699,0.10617911,0.02332316,0.11147256,0.10024858,-0.10165462,-0.09638903,0.11707345,-0.00580158,-0.10496189,-0.04444239,0.07348251
-0.01646630,0.11199208,-0.10597996,0.01496838,0.09138763,-0.00459556,0.08562671,0.01104145,0.05487861,0.11253978,-0.06334060,-0.03253821,0.11052060,-0.09904419,-0.05217759,-0.03949745,-0.00554232,0.04421926,-0.10068303,-0.06781754,0.04831912,-0.07269546,-0.05110866,0.03504643,-0.07271256,-0.04417585,-0.05656175,-0.12399374,-0.09665263,0.09941499,0.10652828,0.02448429,0.05927032,0.08833599,-0.09909318,-0.01259971,-0.10620399,0.08685626,0.08022770,-0.04840891,0.07660623,-0.00414851,0.11742194,0.02614580,-0.07468003,0.01041219,0.12293006,-0.09907104,-0.11724100,-0.08612417,0.02964932,0.12285215,-0.10939543,-0.03664203,0.11836469,-0.01536529,-0.02089590,0.04119398,-0.08096150,0.12231354,0.03869072,0.04374744,-0.09673417,-0.02364697
-0.07581335,-0.22737923,0.05371757,0.08957528,-0.01959722,-0.02680051,-0.10472698,0.01821536,-0.11682560,0.00135758,-0.09665743,-0.00205292,0.17292398,-0.15267855,-0.17716715,0.23511115,-0.08796334,0.02913800,-0.10898408,-0.19477522,0.20213586,-0.06656949,0.20201887,0.04077402,0.02038992,-0.17099106,0.05697342,-0.03215668,-0.08599459,0.13970776,-0.04043064,-0.00314440,-0.10638297,0.12929127,0.11290491,0.19484937,-0.06498732,0.00978508,0.12454085,0.14567979,0.09361011,0.22938968,0.04850805,-0.09308503,0.02163965,0.07143234,-0.06633669,0.08147152,-0.03673904,0.03425275,0.01653719,0.07730378,-0.07656868,-0.15544169,-0.15484661,0.00571690,0.10832953,0.09903945,-0.07607017,-0.01191017,0.00750444,-0.01740642,-0.08822197,0.09104654
-0.09639974,0.00501963,0.05242707,0.08888479,0.06504393,0.06295720,0.09995148,0.01052515,0.11663498,-0.03308295,0.00141075,0.00794493,-0.09115684,0.09954107,-0.02924894,0.10527402,0.08715802,0.06899658,-0.05692080,0.04079635,-0.11782894,-0.04312757,-0.00858970,-0.07449731,-0.01590630,-0.01283963,-0.11567573,0.07172161,-0.00705779,-0.07244982,-0.04985037,0.02872568,-0.03843603,-0.06040902,-0.02164185,-0.09083904,-0.06651387,-0.11790185,-0.06326403,0.00266822,0.04219384,-0.04509312,-0.10549104,0.03945315,-0.12485227,-0.12202850,-0.05906172,0.11374725,0.06140567,-0.10807005,0.00875978,-0.11771379,0.03181095,-0.01398528,-0.02174710,0.01735844,-0.10255590,-0.02751301,0.06009151,-0.11366209,-0.06462955,-0.10500823,-0.01172838,-0.07657900
-0.08801566,0.26208815,-0.19679640,0.12338088,0.04686992,0.06819058,0.14894587,-0.10719171,0.02944829,0.10115689,0.00189674,-0.15505648,-0.21003948,0.25403836,0.20421012,-0.17417784,0.16393350,0.02069871,0.15970711,0.05135573,-0.08514512,-0.07980655,0.13335942,-0.08050373,-0.13634987,0.16188291,-0.14223431,0.22539653,-0.08591479,-0.03600832,0.10692519,0.12002538,0.11507821,0.04020840,-0.10671557,0.03071604,0.26505277,0.26708463,-0.18593483,-0.25556836,-0.06702413,-0.21479017,0.06820478,0.12704651,-0.12431888,-0.18360144,0.09323171,-0.06438233,0.04361840,-0.08684112,0.10037424,-0.01850101,0.26362804,0.14488322,0.09944383,0.22747210,-0.02018230,-0.10469685,-0.05927879,0.14612839,0.10808368,-0.03640079,-0.02411525,0.07678124
-0.05579127,-0.07344531,0.25983199,-0.01599665,0.09195173,-0.20170893,-0.06869931,-0.10778309,-0.09552459,-0.21879895,-0.07659529,0.15419009,0.04398029,-0.19695599,-0.12283810,0.23566854,-0.23013964,0.00953957,-0.24737391,-0.17819670,0.11145871,-0.07927534,0.16912933,0.02457763,0.18999481,-0.02550887,0.17121147,-0.01696387,-0.05047867,0.07143967,-0.10047722,0.09837432,-0.18080582,-0.08665726,0.10979761,0.22098270,-0.10194857,-0.01580167,0.10874707,0.19625066,-0.03258753,0.01124973,0.08991139,-0.05482855,0.00349890,0.01747960,-0.07175037,-0.10355651,-0.22138016,0.06084956,0.02229020,0.11524521,-0.04126465,-0.11905957,-0.04183481,-0.02715999,0.01858060,-0.06291158,0.00545000,-0.21659571,-0.13497140,-0.06374981,0.11703607,0.00096680
0.06335154,-0.06962959,0.02147444,-0.04507826,0.03704104,-0.02733992,0.05088216,-0.02630949,-0.10544717,-0.07095662,0.03389280,-0.00539213,0.02060035,0.11129183,0.07120532,-0.10266112,-0.12361954,0.11880806,0.10823989,-0.10972568,0.11587226,0.02181037,-0.11610083,-0.01557040,0.09571978,0.03332508,-0.07402442,-0.09228940,-0.06356880,0.01114820,0.02614379,-0.05362935,0.10939933,0.10961328,-0.02842869,-0.00948562,0.01660164,-0.00864244,-0.11822972,0.09923288,-0.01970786,-0.01518039,-0.05933364,-0.03893296,0.07610270,0.08987102,0.00985526,0.08858399,-0.00265381,0.08141004,-0.02145281,-0.09536342,-0.07579371,-0.01420943,0.02420790,-0.08935106,0.05846795,-0.09631892,0.05310743,-0.10372968,-0.07741770,0.06791268,-0.05934282,-0.07908955
-0.02665450,-0.10271473,0.03798054,-0.11780892,-0.04342058,-0.00500539,0.06110555,-0.11680557,0.08066607,-0.09460913,-0.02296488,-0.10236835,0.02473672,0.05830340,0.01073471,0.10342105,0.00436582,0.02182852,0.08822751,0.03512031,-0.08027706,0.07496476,-0.00219072,0.09343873,-0.07027645,-0.11249010,0.08931197,-0.05870521,-0.07318917,-0.12263906,-0.02888928,0.05428897,-0.02154118,-0.02824056,0.09754542,0.03528208,-0.12264279,-0.01673307,-0.02670397,0.04359347,-0.07600267,0.08517979,0.08659385,-0.04364710,-0.08858116,0.03852487,0.12375994,0.03192078,0.10743158,-0.01663655,-0.05993417,0.01748264,0.00167957,-0.01390254,0.05465139,-0.09117270,-0.10223061,0.10931918,-0.07689486,-0.08921596,0.10624024,0.10730165,0.02464980,0.01260436
0.08738160,-0.03960673,0.09354683,0.07848890,-0.11280726,0.07823023,-0.03304120,-0.00806807,-0.05782679,-0.11723331,0.06132714,-0.11145736,0.08323264,0.07231062,-0.13744082,-0.02856092,0.08343898,0.10312659,-0.10014176,0.06002752,-0.02959718,-0.06491141,-0.11563019,0.03243577,0.12612851,0.02530488,-0.01820537,-0.03193102,-0.02542002,-0.01923426,-0.09659266,0.07266425,0.07889241,0.07579233,0.11313121,0.01418190,0.04318247,-0.09692081,0.00691333,-0.10715599,-0.10520789,-0.08701561,0.02776854,0.05850221,0.00373603,-0.05406457,-0.05607712,0.05186187,0.02122628,0.04700305,0.03545238,0.06208430,0.08625029,-0.07181769,-0.08559819,-0.08857857,0.06154321,-0.12476239,0.12176183,0.10521628,-0.07242268,-0.08110535,-0.09996712,-0.08353922
0.02051313,0.01719607,0.01994590,0.06133890,-0.05706854,-0.01803844,-0.03449307,-0.05441725,0.01211089,0.09209715,-0.10180166,-0.12238333,-0.04340540,0.08612746,-0.05472332,0.05612390,-0.12478541,0.01432753,0.01100573,0.03461920,-0.07298790,-0.05880490,-0.09455723,0.03559619,0.10211928,-0.08656543,0.05399281,-0.06150532,0.12018237,0.08994651,0.01347011,-0.04580176,0.07495637,0.10450302,0.09475002,-0.07296100,-0.08487640,-0.00436229,0.02079780,0.11724298,0.03197446,0.10973352,0.10494809,-0.04286651,0.09985757,-0.08210360,-0.03101099,0.12345795,-0.02808942,-0.07772087,-0.04294883,0.02533552,-0.03594245,0.06024566,0.07425421,0.00653335,-0.01018058,-0.07999605,-0.06906424,0.11744295,-0.07533796,0.05228113,0.06391113,0.01505320
